italy 1.7704 -0.77758 -0.95302 0.329 0.040391 -0.086352 -0.096326 -0.14525 -0.85415 -0.091315 0.71825 -0.8378 -0.71724 -0.30078 1.2588 -0.72728 -0.26415 -0.17469 -0.57705 0.335 -0.51533 -0.43223 -0.80174 0.94644 0.0098356 -1.3264 0.59604 -0.12843 -1.0187 0.25605 2.6086 0.87975 -0.30444 0.31701 -0.66136 -0.15968 -0.28717 1.4486 -0.6017 -0.64794 0.37924 0.18643 1.2729 -1.2207 -0.20923 1.1948 -0.18 -0.35325 0.44488 -0.83675
son 0.2771 0.97784 -0.1447 -0.48693 1.1714 0.67133 -0.86157 0.63143 -0.98881 -0.11358 0.2246 1.2442 -0.59939 -1.0432 0.67863 -0.10454 -0.62641 0.17461 -0.1696 0.95344 -0.46932 0.89562 -0.30832 0.10274 0.80234 -2.4357 -0.47613 -1.2526 0.1124 0.45486 1.7478 -0.45626 -0.63565 0.56231 1.0432 0.063764 0.10414 0.21323 0.56448 0.11494 -0.032541 0.75053 -0.71651 -0.50863 0.52775 -0.51207 -0.72506 -1.8436 0.38052 0.36673
italian 1.3249 -0.72295 -1.4014 -0.038929 0.31079 -0.029466 -0.73726 -0.26476 -1.5154 0.17862 0.90742 -0.47018 -0.19712 0.51508 0.97645 -1.7018 -0.68926 0.72521 -0.55985 -0.15008 -0.3136 0.11762 -1.0012 1.1083 -0.21998 -1.2775 -0.17973 -0.10399 -1.207 0.76172 2.7922 -0.23252 -0.46951 0.66419 -0.29245 0.41382 -0.40453 1.0008 -0.33376 -0.51774 0.94343 0.41602 1.1146 -0.93192 0.32985 0.22213 -0.4394 0.15883 0.8059 -0.72778
spain 1.1595 0.21344 -0.36298 1.0122 -0.18473 -0.30199 -0.35055 0.8532 -0.71617 0.35008 1.1401 -0.58245 -0.33837 -0.36144 1.1036 -0.85338 -0.37948 -1.2075 -0.44249 0.10017 -1.0162 -0.76619 -0.6012 0.76406 -0.20989 -1.0587 0.4871 -0.63722 -0.35631 0.30415 2.6428 0.52948 -0.64095 0.11115 -0.44187 -0.54406 -0.67595 0.69745 -0.37146 -0.19252 0.54152 0.29873 1.4091 -1.291 -0.57823 0.52369 -0.44592 -0.61992 0.56161 -0.94449
india -0.20356 -0.8707 -0.19172 0.73862 0.18494 0.14926 0.48079 -0.21633 0.72753 -0.36912 0.13397 -0.1143 -0.18075 -0.64683 -0.18484 0.83575 0.48179 0.76026 -0.50381 0.80743 1.2195 0.3459 0.22185 0.31335 1.2066 -1.8441 0.14064 -0.99715 -1.1402 0.32342 3.2128 0.42708 0.19504 0.80113 0.38555 -0.12568 -0.26533 0.055264 -1.1557 0.16836 -0.82228 0.20394 0.089235 -0.60125 -0.032878 1.3735 -0.51661 0.29611 0.23951 -1.3801
delhi 0.18214 -0.28351 -0.25541 0.22921 -0.44429 -0.54475 0.67721 -0.27654 0.068624 -0.69132 -0.31098 -0.53566 -0.32012 -0.40935 -0.34238 1.4787 -0.034364 1.088 -0.39671 1.2663 1.8232 0.97568 0.18346 0.55456 0.62986 -1.5467 0.34259 -0.29705 -1.2019 0.01831 1.7297 0.54533 -0.08473 0.15328 0.72879 0.050399 0.48308 -0.26805 -0.54156 0.97152 -0.9383 0.35984 -0.30545 -0.10968 -0.069992 0.78156 -0.27464 0.50171 0.42222 -1.1253
japan -0.31739 -0.14033 0.32292 1.072 0.33008 0.39406 -0.016682 0.076903 -0.74591 -0.31521 1.0033 -0.12659 0.063252 0.64006 0.70721 0.84303 -0.68832 0.47214 -0.66002 0.73962 1.1116 -0.89428 -0.90364 -0.47281 0.88529 -2.0194 0.30623 -0.31662 -0.44423 -0.52139 3.0287 0.70315 0.92315 0.52263 -0.62674 -0.58995 -0.15876 -0.078332 -1.0794 -0.71552 -1.2764 -0.85554 1.2827 -1.2134 1.0125 0.40329 -0.16276 0.99117 0.031016 -0.35431
man -0.094386 0.43007 -0.17224 -0.45529 1.6447 0.40335 -0.37263 0.25071 -0.10588 0.10778 -0.10848 0.15181 -0.65396 0.55054 0.59591 -0.46278 0.11847 0.64448 -0.70948 0.23947 -0.82905 1.272 0.033021 0.2935 0.3911 -2.8094 -0.70745 0.4106 0.3894 -0.2913 2.6124 -0.34576 -0.16832 0.25154 0.31216 0.31639 0.12539 -0.012646 0.22297 -0.56585 -0.086264 0.62549 -0.0576 0.29375 0.66005 -0.53115 -0.48233 -0.97925 0.53135 -0.11725
woman -0.18153 0.64827 -0.5821 -0.49451 1.5415 1.345 -0.43305 0.58059 0.35556 -0.25184 0.20254 -0.71643 0.3061 0.56127 0.83928 -0.38085 -0.90875 0.43326 -0.014436 0.23725 -0.53799 1.7773 -0.066433 0.69795 0.69291 -2.6739 -0.76805 0.33929 0.19695 -0.35245 2.292 -0.27411 -0.30169 0.00085286 0.16923 0.091433 -0.02361 0.036236 0.34488 -0.83947 -0.25174 0.42123 0.48616 0.022325 0.5576 -0.85223 -0.23073 -1.3138 0.48764 -0.10467
boy -0.32345 0.23332 -0.20082 -0.52848 1.0926 0.62445 -0.99859 0.28085 0.088326 0.36919 0.32199 0.3499 0.067459 0.24211 0.92565 -0.32581 -0.99134 0.80767 -0.22845 0.40076 -0.8577 1.3836 0.056439 0.76561 0.3608 -2.0692 -0.46679 0.12359 0.35127 -0.77092 2.2064 -0.42605 -0.24279 0.3832 0.6069 0.62835 0.31825 -0.8851 0.38329 -1.146 -0.41949 0.2606 -0.6568 -0.11511 1.0591 -0.61148 0.32152 -1.3182 0.31744 0.02527
small 1.1419 0.21621 0.05988 -0.22087 0.721 0.55394 -0.85043 -0.27485 0.0788 -0.54447 -0.16458 -0.39355 0.94567 0.3132 -0.57388 0.006172 0.51563 0.59235 -0.5439 -1.1097 0.13733 -0.66901 -0.16584 0.44869 -0.42889 -1.1225 -0.43607 0.55676 0.39962 -0.25964 3.8543 -0.33091 0.38144 0.059943 0.19653 0.50617 -0.41123 0.16168 0.1503 -0.061063 -0.0063997 0.1881 -0.037663 0.29605 0.46124 0.0066039 -0.30738 -0.64137 -0.058311 -0.45848
smaller 1.1998 -0.23055 0.69906 -0.1176 0.36606 0.57779 -0.62184 -0.6137 -0.41405 -0.24856 0.14361 -0.56083 0.68587 0.43607 -0.55022 0.40384 0.26088 0.26201 -0.45767 -1.3575 0.16209 -1.1499 -0.012015 0.36464 -0.71587 -0.41222 -0.39604 0.10225 0.13425 -0.14918 3.4935 0.38427 0.69106 -0.096564 0.27325 -0.20039 -0.54823 0.14732 -0.46445 -0.022909 -0.2768 -0.039195 0.34513 0.50713 -0.072703 -0.097248 -0.2894 -0.24848 -0.3833 -0.23238
large 1.1303 0.28035 0.15825 -0.36373 0.63884 0.40727 -0.6041 -0.38511 0.12849 -0.4438 -0.25311 -0.36961 1.016 0.27822 -0.4178 0.016858 0.55661 0.3856 -0.57398 -1.0437 0.50172 -1.1141 -0.19099 -0.11988 -0.75892 -1.0916 -0.46073 0.61686 0.34421 0.078685 3.8287 -0.32661 0.50127 -0.26291 -0.16509 0.69122 -0.41489 0.19888 -0.071731 -0.18805 -0.026401 0.14917 0.028164 0.33275 0.41858 -0.020588 -0.62518 -0.40942 -0.23624 -0.65003
father 0.095496 0.70418 -0.40777 -0.80844 1.256 0.77071 -1.0695 0.76847 -0.87813 -0.0080954 0.43884 1.0476 -0.45071 -0.58931 0.83246 -0.038442 -0.73533 0.26389 0.12617 0.57623 -0.23866 1.0922 -0.3367 0.081537 0.84798 -2.4795 -0.40351 -0.84087 0.12034 0.29074 1.9711 -0.50886 -0.45977 -0.13617 0.55613 0.22924 -0.18947 0.43544 0.65151 0.043537 -0.1162 0.72196 -0.66163 -0.17272 0.27367 -0.28169 -0.82025 -1.5089 0.052787 -0.035579
mother 0.4336 1.0727 -0.6196 -0.80679 1.2519 1.3767 -0.93533 0.76088 -0.0056654 -0.063649 0.30297 0.52401 0.2843 -0.38162 0.98797 0.093184 -1.1464 0.070523 0.58012 0.50644 -0.24026 1.7344 0.020735 0.43704 1.2148 -2.2483 -0.41168 -0.24922 0.31225 -0.49464 2.0441 -0.012111 -0.19556 0.085665 0.27682 0.015702 0.0067683 0.12759 0.87008 -0.40641 -0.21057 0.41651 -0.021812 -0.53649 0.54095 -0.43442 -0.52489 -2.0277 0.13136 0.11704
ball -1.0448 -0.69797 -0.10083 -0.37426 0.69421 -0.2464 -0.76056 0.10572 0.2586 0.25263 -0.031373 0.77425 -1.3667 0.57333 -0.039805 -0.294 0.84373 -0.69412 -1.669 -0.9469 -0.63603 0.26506 0.39887 -0.23512 0.71075 -1.7373 0.7182 0.94293 0.68663 -1.6145 2.6355 0.34523 0.16226 0.58006 0.15597 0.71217 0.39527 1.3211 0.22099 -0.032896 0.46437 0.93906 -0.55288 0.52962 -0.50239 0.03018 0.77379 -0.82515 0.46383 -0.6999
crocodile 0.2871 -0.43461 -0.90973 0.25754 -0.10418 0.36762 -0.57633 -0.61789 1.1639 -0.27346 0.17042 0.51468 0.7652 -0.15985 0.27703 0.59225 0.96539 0.5916 -1.4139 0.7556 -0.60357 0.5712 0.2801 -0.20633 0.17194 -0.59669 -0.64958 0.77174 -0.06909 -0.56286 0.55212 -0.50677 0.61078 1.4162 -0.56308 0.87002 0.035254 -0.86181 0.25893 -1.0382 0.38684 0.13685 0.15572 0.70945 1.3774 -0.59288 -0.2297 -0.85314 0.48627 -0.65694
paris 0.76989 1.181 -1.1299 -0.74725 -0.5969 -1.0518 -0.46552 0.27009 -0.99243 -0.04864 0.28642 -0.75261 -1.0566 -0.19205 0.572 -0.24391 -0.36054 -0.70876 -0.91951 -0.27024 1.5131 1.0313 -0.55713 0.52952 -0.71494 -1.0949 -0.60565 0.31329 -0.44488 0.55915 2.1429 0.43389 -0.5529 -0.24261 -0.43679 -0.96014 0.25828 0.79385 0.37132 0.49623 0.84359 -0.25875 1.5616 -1.1199 0.091676 0.076675 -0.45084 -0.86104 0.97599 -0.35615
rome 1.7328 0.74491 -0.90946 -0.61916 0.11515 -1.3528 -0.044927 0.15027 -1.2333 -0.085559 -0.088266 -0.29123 -0.65817 -0.53225 1.1005 -0.51414 -0.78475 -0.30087 -0.55898 0.93097 0.045988 -0.077539 -0.66556 0.3753 0.0024896 -1.2641 0.078016 -0.12052 -1.0292 -0.047419 1.7711 0.28545 -0.48243 -0.50638 -0.7063 -0.067205 0.49704 0.95463 -0.30081 0.62246 0.44981 0.0045407 0.52488 -0.23153 -0.32818 0.80113 -0.48159 -0.58455 -0.11393 -0.82938
france 0.66571 0.29845 -1.0467 -0.66932 -0.78082 -0.00013007 -0.17931 0.3711 -0.18622 -0.40535 0.98644 -0.60545 -0.94571 -0.69207 0.56681 -0.3861 0.027634 -1.2464 -0.73561 -0.52222 -0.061766 0.16771 -0.37462 0.4225 -0.63095 -1.636 -0.25094 0.04495 -0.39758 0.98099 2.6293 0.8348 -0.77338 0.39402 -0.57976 -1.029 -0.26709 0.98714 -0.51029 -0.42477 1.3956 -0.029347 2.2295 -1.7079 0.025562 0.6906 -0.579 -0.17824 0.42916 -0.5394
girl -0.34471 0.69563 -0.78086 -0.58482 1.2263 1.2544 -0.76466 0.40575 0.18862 0.098834 0.32557 -0.31816 0.23869 0.33554 1.0592 -0.25266 -1.0308 0.70027 0.030457 0.53866 -0.30279 1.7515 0.3128 1.2103 0.41335 -1.9421 -0.93756 0.32453 0.52249 -0.86708 2.1258 -0.20377 -0.19061 0.37736 0.66205 0.50211 -0.12544 -0.83069 0.21155 -1.3091 -0.44973 -0.11648 0.033598 -0.68382 0.99419 -0.88262 0.56601 -1.327 0.37319 0.022389
tokyo -0.31168 0.19471 0.19075 0.68413 0.29163 -0.8988 0.22633 0.17832 -1.4774 -0.091882 0.089789 -0.94473 -0.19385 0.58078 0.20208 0.9924 -1.0311 0.42467 -1.142 0.71974 2.1561 -0.14197 -0.92983 -0.28101 -0.011046 -1.6787 0.44449 0.54703 -0.71357 -0.67743 2.3393 0.28577 1.4062 -0.0078203 -0.15283 -1.1147 0.2415 -0.65908 -0.044945 0.046839 -1.1396 -0.44836 0.91807 -0.74048 1.0508 0.052699 0.13431 0.62261 0.61384 -0.097283
daughter 0.37648 1.2426 -0.39739 -0.53184 1.187 1.5091 -0.84171 0.67881 -0.25809 -0.47984 0.17823 0.74667 -0.13473 -0.92361 0.95622 0.20569 -1.2239 -0.055043 0.56182 0.78077 -0.04409 1.5692 -0.066821 0.2514 1.0403 -2.1412 -0.31986 -0.77169 -0.029177 0.047146 1.4145 -0.23272 -0.34426 0.22699 0.88573 -0.20184 -0.15168 0.3621 0.6495 -0.68719 -0.068208 0.53595 -0.15289 -0.90156 0.38965 -0.523 -0.32187 -2.4262 0.30053 0.33888
larger 1.2487 0.087988 0.47495 -0.36961 0.4887 0.60362 -0.20401 -0.65056 0.0074782 -0.32327 0.13068 -0.43683 0.58543 0.15284 -0.49235 0.3482 0.41847 0.5212 -0.54211 -1.0813 0.10588 -1.1184 -0.39483 0.16217 -0.59144 -0.76414 -0.42994 0.29797 0.33817 0.18938 3.2667 0.15264 0.32387 -0.51649 0.11717 -0.016736 -0.38464 -0.032177 -0.51997 -0.23448 -0.10376 -0.25952 0.1391 0.22982 -0.37494 0.13224 -0.00063832 -0.082759 -0.56704 -0.14627
juanma 0.92544 -0.31533 -0.11118 0.78143 -0.056133 -0.78429 0.33237 0.74873 -1.5203 0.67957 -0.071885 1.982 -0.34828 -0.29615 -1.0417 -0.28947 -0.16316 0.057718 -0.125 1.1095 -0.5863 -0.17731 -0.84234 -0.31178 1.262 0.8235 1.7109 -0.15011 -0.23402 -0.93324 -0.46704 0.35503 1.2125 0.93145 0.79313 0.35129 -0.14541 -0.53579 1.1393 0.70337 -0.11221 0.32825 -1.0759 0.43433 -0.47638 -0.60129 0.90629 0.40149 1.791 0.00032063
de'andre -0.70229 -0.2245 -0.067887 -0.11256 -0.18326 -0.35013 0.46641 1.17 0.86245 -0.062176 -0.39489 0.19492 -0.63259 -0.17462 -0.20101 0.11933 -0.62192 -0.068451 0.51134 -0.42565 0.38811 0.44364 0.11503 -0.067042 -0.27228 -0.051141 0.94072 0.23727 0.074613 0.1424 -1.4995 -0.58204 0.404 0.16211 0.82567 0.029577 0.11655 0.37573 -0.74679 0.24989 -0.1237 0.067082 -0.3168 0.47031 0.75585 -0.53959 0.56406 -0.42042 -1.0316 0.17294
mugnier 0.11132 -1.1375 0.065573 -1.2793 -0.65523 1.1068 0.16604 1.2277 0.54699 0.34689 -0.045468 -1.1402 -0.55379 0.77062 1.0212 -0.25195 -0.79275 -0.41917 0.26136 -0.025694 -0.078913 0.71618 -0.12035 -0.093675 0.50931 0.61529 0.33626 0.4277 -0.030491 0.97208 -1.4798 -0.25121 0.38092 0.95862 0.15057 0.075422 0.86892 0.020781 0.027964 -0.45181 -0.355 0.31846 -0.81779 -0.70716 0.62327 -0.5295 0.5295 -0.13145 -0.91439 0.10195
lecointe 0.22602 0.18305 0.52351 -0.93137 -1.2688 -0.0058744 -0.30657 0.72337 -0.3281 0.30039 -0.084286 0.83635 0.60813 0.42131 -0.40444 -0.20274 0.48352 -0.75323 0.45639 0.69158 -0.66888 -0.43191 -0.63186 -0.35876 0.83265 1.2665 0.46578 -0.10345 0.19742 0.56654 -1.3444 -0.17971 0.57766 -0.096499 -0.24398 0.928 -0.22422 -0.6091 0.093417 0.028549 -0.42635 0.2157 -0.14646 -0.40192 -0.70993 -0.66949 0.014213 -0.81583 0.82315 -0.68307
cgc -0.66821 -0.11101 -0.14441 -0.6018 -0.93351 -0.35025 0.64849 -0.66736 -0.22601 -0.48362 0.55494 0.33071 0.29473 0.10295 -0.75889 0.16315 0.10639 0.41893 0.56816 -0.48891 -0.68212 -1.1376 -0.31244 -0.33408 -0.92487 0.43842 0.12495 0.59777 -0.90029 -0.11211 -0.80934 -0.1438 0.082675 1.1567 -0.45459 -0.46483 -0.11039 -0.23548 -0.25109 -0.11696 0.59555 -0.39898 0.68705 0.017741 -0.2615 -0.30345 0.19317 0.67117 -0.88716 -0.30272
hebard -0.12363 0.056248 -0.66015 -0.40622 -0.7733 1.2415 0.076273 0.54762 0.74876 0.27609 0.62279 -0.082388 0.33746 0.087778 -0.3788 -0.1704 -0.70451 0.29397 0.39541 -0.19317 -0.44099 0.89342 -0.52289 -0.36191 0.69236 0.52768 -0.32586 0.23768 0.020551 0.34595 -1.5069 -0.29127 0.32526 -0.098262 0.39025 0.17997 0.10016 0.53068 0.33304 -0.29801 0.28517 -0.15523 0.20939 -0.63617 0.31803 0.31426 0.72438 -0.31033 -0.72231 0.2504
hollings -0.33057 -0.49601 0.031968 -0.058942 -1.7232 0.49399 0.25647 -0.92075 -0.48509 -1.1528 -1.163 0.16716 -0.071472 -0.55052 -0.7177 -0.87661 0.25199 0.30271 0.52408 -1.0111 -1.0315 -0.71609 0.096795 -0.88435 1.088 -0.93951 0.40241 0.18594 -0.71948 0.23832 -0.58313 0.20968 -1.1815 0.81136 -0.56179 -1.5404 -0.30396 1.3756 0.41663 0.74696 -0.17143 0.74116 0.64159 0.085539 -0.17457 0.82413 -0.20514 -0.25049 0.16984 1.2035
connexion 1.1101 -0.28692 -0.2989 -0.01125 0.094499 1.0547 -0.7384 -0.18235 1.1797 -0.12128 0.094531 0.17544 -0.28595 -0.46941 -1.1867 -0.2929 -1.3331 0.56797 0.79362 -0.035894 0.35394 0.20179 -0.53002 0.24229 0.49127 0.38323 0.040049 -0.10138 0.36271 0.28911 -0.36044 -0.33093 0.20372 0.5383 0.18903 -0.9457 -0.012203 0.13345 -0.34225 0.65638 0.79411 -1.5199 -0.83584 0.49456 -0.11944 1.0072 -0.23155 0.67839 -0.69921 0.12226
duluiyah 0.22014 -0.28251 0.48442 -1.5338 -0.77938 -0.014167 0.62281 -0.17235 0.50718 0.29352 -1.109 -2.1946 0.94296 -0.28127 -0.99329 -0.077022 0.40122 0.1285 -0.060372 0.39338 0.17171 0.38861 0.050276 1.0112 -1.0885 -0.33603 0.010378 0.83555 -0.75581 0.24397 -1.1413 -0.63511 0.04687 0.28744 1.0843 -1.1571 -0.54114 -0.28629 0.38684 1.2719 -0.066693 1.2931 0.78768 0.62236 -1.0088 -0.91694 0.40403 0.50138 -0.34352 0.038019
abscission -0.30477 -0.12451 -0.32862 1.1346 -0.18616 0.35623 1.0252 0.64942 0.50742 -0.47337 0.97503 0.13141 0.42178 0.43056 -0.46836 0.71476 -0.26163 -0.0702 0.50941 0.33777 0.32636 -0.97859 0.26374 -0.52342 -0.617 0.98543 0.6456 1.0182 1.2189 0.53753 -0.52853 -1.0938 -0.08149 -0.27441 -0.63931 0.89667 -0.52519 0.028382 0.25666 -0.27003 0.6664 -0.47278 -0.5433 -0.68709 0.51707 -0.48389 1.1834 0.43513 -0.3279 -0.26322
namp -0.39235 0.37623 -0.37788 -0.15525 -1.1176 -1.529 0.6247 -0.018692 0.37832 0.40486 0.084696 0.70386 0.64745 0.17338 -0.62133 0.30869 0.34 -0.55764 0.54898 0.34878 -0.70344 -0.94313 0.17493 0.66562 -0.89207 0.84849 -0.65376 0.051867 0.0078259 -0.27251 -0.89142 0.22013 -0.20095 1.1166 0.67256 -0.4109 0.77294 -0.89846 0.15008 0.42574 0.15458 -0.54443 0.58249 0.39506 0.39341 0.13622 0.28573 0.052447 0.43421 0.51231
disqualification -0.75123 -0.0347 -0.060368 0.82064 -0.80361 1.0076 1.3384 1.1945 0.27986 0.50547 0.070089 -0.44016 -0.53654 -0.42825 0.76321 -0.041443 -0.098757 -0.86894 -0.64444 -0.72086 -0.13495 -0.64057 -0.046101 -0.29479 0.072442 -1.1747 0.39025 -0.26672 -0.32477 0.29136 0.24329 0.24276 -0.587 -0.16213 -0.17341 -0.22589 1.3397 -0.14321 -0.55081 -0.51725 0.25794 0.20257 -0.90327 1.0891 -0.010907 -0.7344 -0.099428 -0.12343 0.44404 -0.73421
quizzically -0.1085 -0.92379 -0.18848 -0.88775 0.86747 -1.2287 0.31577 0.67726 -0.92953 -0.0048686 -0.28162 0.19284 0.070261 0.63589 -0.16994 0.52742 -0.30804 -0.054811 0.34986 -0.38924 -0.056382 1.4547 0.23705 0.35569 1.2139 -0.056079 0.31663 1.1998 -0.30092 -1.4688 -1.4567 0.27905 0.74215 -0.51578 -0.49841 -0.18778 -0.23815 0.72719 0.16216 -1.0547 0.47493 -0.44003 0.61296 0.64755 0.67692 -0.36206 0.98646 -0.076414 0.28152 0.36867
katzenelnbogen 0.47879 -0.48883 0.616 0.18873 0.10726 1.5032 1.9866 0.90404 0.19974 0.18933 -0.53494 -0.47957 -0.2254 -1.2064 -0.21112 -0.52652 -0.68907 0.10679 0.57365 -0.40177 -0.15024 -1.2875 0.62775 0.1619 -0.39108 0.13149 -0.74713 -0.053964 -0.4219 -0.68385 -1.3298 -0.79221 0.14315 0.18359 0.74745 -0.82758 -0.037008 0.32429 0.45508 0.1173 -0.2308 -0.13172 -0.5079 0.28305 -1.0379 -0.38349 0.49725 -1.1096 0.011514 -0.27087
kamau -0.12251 -0.9477 -0.9211 0.17421 0.45071 0.47408 -0.010282 -0.037618 0.077848 -0.03173 -0.4884 -0.10483 -0.51335 -0.58214 -0.23186 -0.80316 0.94066 -0.57867 -0.89638 -0.7208 -0.40533 0.77518 -0.11902 -0.14077 0.43891 0.55978 1.0736 -0.37715 -0.31678 -0.13419 -1.6244 -0.10401 -0.38107 0.57148 -0.079886 -1.5082 -0.42184 0.13597 0.053751 0.53024 0.63548 0.68504 -0.14502 -0.26934 0.17901 -0.062637 -0.15168 -0.54903 0.038727 0.70434
p&s -0.54346 -0.30345 0.28148 -0.61967 -0.92266 -0.48964 0.55303 0.23363 0.1564 0.26628 0.3764 -0.079352 0.96786 0.13767 -0.13834 0.12758 -0.209 0.67466 0.3868 0.19788 0.18208 -0.32449 -0.047237 0.34483 0.075475 1.3081 0.16577 -0.16633 -0.21134 -0.28018 -0.86852 0.028402 0.39596 0.21297 -0.52339 0.53753 0.70157 -0.30041 -0.16621 -0.23825 0.62494 -0.89995 -0.058365 0.58102 -0.49727 -0.29233 0.15559 0.10917 -0.42656 -0.038477
patriotic -0.67131 -0.46935 -0.6899 -0.62118 0.58735 -0.54106 0.28074 -0.54259 -0.64308 0.22769 0.2474 -0.50224 0.038354 -0.34298 -0.64355 -1.0335 -0.075116 0.55036 0.32552 -0.60318 -0.70845 0.72593 0.44614 -0.042453 0.04612 -0.39077 -1.2791 -0.28938 -0.26619 0.52033 1.9499 1.0617 -1.1267 0.23342 -1.1745 0.11275 -0.55811 -0.87502 -1.3469 0.48324 0.56456 0.32775 -1.2209 -0.85333 -0.25397 0.36706 -1.3073 -0.063449 -0.57791 -0.73086
mckyer -1.0779 -1.0769 0.30614 0.53038 0.87515 -0.30306 -0.71307 0.11145 0.9874 0.22429 -0.011375 0.81599 0.63788 1.0528 0.77261 0.28613 0.46037 -0.87753 -0.38608 0.80024 -0.57916 0.29516 0.032675 0.10947 1.1194 0.57604 0.90368 -0.28594 0.36062 -0.3068 -1.2935 -0.74539 1.31 0.019385 -0.21308 0.44781 0.030012 -0.5366 0.37021 -0.82257 -0.15776 0.36601 0.01617 0.75894 0.45741 0.80693 0.53074 0.25913 -0.30997 0.1933
olamide -0.96373 -0.55977 0.011715 0.3022 0.4739 0.26318 0.1074 0.55356 -0.041603 0.47855 0.17268 -0.17282 0.093744 0.2477 -0.14366 -0.043651 -0.77057 0.26395 1.3966 0.51229 -0.39793 0.3866 -0.69299 0.22012 0.56763 0.80538 0.48722 -0.035448 -0.019168 -0.24286 -2.0121 -0.46507 0.56341 0.40936 0.4392 0.017297 -0.049156 0.16402 -0.52264 -0.20526 -0.21834 -0.82923 -0.21239 0.13613 0.36146 0.039794 0.22978 0.2123 -0.0061519 -0.055396
restrictiveness 0.039234 0.089785 -0.20759 -0.050093 0.032988 -0.028132 0.98031 0.013322 0.39401 0.9941 0.056363 -0.30546 0.68005 -0.2966 -0.1559 -0.16696 0.35137 -0.15137 0.733 -0.10334 -0.14211 -0.86199 -0.30258 -0.063978 0.11743 1.3282 -0.24233 0.20632 -0.104 0.49 -0.95299 0.50621 1.0082 0.22059 0.054293 -0.22588 -0.45846 0.053602 -0.85236 -0.13459 -0.16683 -0.29466 -0.22718 0.34263 -0.24259 -0.55413 0.45378 0.94071 -0.15126 -0.24533
nineteen-year-old -0.57488 -0.029612 -0.25413 -0.62448 0.59415 0.72788 -0.047954 0.40664 -0.24725 0.051641 0.37266 -0.048143 0.3608 0.15303 -0.16875 -0.56002 -0.83402 0.323 0.3184 0.71648 -0.44231 0.55485 -0.59339 0.29009 0.3321 0.2029 0.38431 -0.29952 -0.2424 0.50547 -1.2281 -0.2573 0.098395 0.34084 0.39641 0.36995 -0.24981 -0.027064 0.17186 -0.75518 0.27001 -0.055174 -0.71471 -0.12754 0.0056438 -0.74017 0.61063 -0.62795 0.16145 -0.050745
carefirst -0.37519 -0.18901 -0.64773 0.72054 -0.16563 -0.082649 -0.18564 0.19215 0.37472 0.30708 0.589 0.2027 1.4493 -0.11214 -0.77212 0.21618 -0.63727 -0.0035254 0.49669 -0.43443 -0.38493 -0.27975 -0.70144 -1.3754 -0.70057 0.48266 -0.16242 0.74152 0.12108 -1.0647 -1.7877 0.81039 0.072798 0.21281 -0.25605 -0.36157 -0.5465 -0.17047 0.1099 -0.17781 0.095473 -0.33404 0.16 0.35347 0.019961 -0.75229 -0.28772 0.91225 -0.34243 0.037952
stainer -0.064564 -0.89466 -0.61527 -0.61589 0.44967 0.44923 -0.18671 -0.27613 0.42766 0.22575 0.040316 0.87982 0.24701 -0.13268 -0.31203 -0.19917 -0.27049 -0.89309 0.048124 -0.1903 0.061274 -0.35187 -0.44587 -0.25761 0.29337 1.0602 0.30919 -0.5372 -0.32787 -0.068452 -1.107 -0.55599 0.988 0.09786 -0.30163 0.042344 0.18451 -0.50168 0.31185 -0.12112 0.30089 -0.23082 -0.70592 0.33814 0.97824 0.39993 0.50348 -0.57472 -0.13007 -0.13232
59-53 -0.18818 -0.42915 0.25283 0.28734 -0.16361 0.45495 0.405 1.3276 0.038296 0.72566 -0.10066 -0.72898 0.63904 0.93345 -1.4117 0.10758 0.47431 -0.75431 0.40211 0.11083 -0.40208 -0.54607 -0.49279 0.1802 0.26768 1.2372 1.0989 -0.069948 0.44726 0.25654 -0.70215 0.39842 0.047699 -0.018 -0.16134 -0.1933 -0.07018 0.13448 0.31055 -0.36438 0.067255 -0.81478 -0.97805 0.40082 -0.10649 0.24981 0.73623 0.41463 0.027614 0.25427
.487 -1.5244 0.68873 1.4356 -0.4899 0.10216 -0.012292 -0.16048 0.36058 -0.28591 0.32162 -0.049381 -1.1103 0.76295 0.59402 -0.271 -0.9407 -0.47759 0.44218 -0.72372 0.44513 0.26119 0.29169 0.84842 0.65081 -1.2821 1.1145 1.2986 -0.58637 1.2819 0.94812 -0.51782 -0.10107 -0.64143 0.18079 0.29833 0.31124 -0.78322 -0.48969 1.001 0.60961 0.86526 0.018163 0.27049 0.090771 -0.34791 -0.59638 0.11321 0.072169 0.096229 0.63116
versace 1.1284 0.36283 -0.30177 -0.20127 0.27707 0.052181 -0.39466 -1.4702 -0.84226 0.69612 0.0069658 -0.85032 -1.4427 -0.37752 1.0227 0.014541 -1.1521 -0.2025 0.44106 0.044921 -0.49957 0.441 -0.57663 0.079393 -1.4346 -0.57216 -1.6706 0.83452 0.25863 -0.57889 -0.43723 1.0388 -0.33706 -0.16978 0.083735 0.018831 -0.11455 1.1945 -0.36766 0.27595 0.19627 0.95083 -0.15675 -0.53886 0.571 -0.48963 -0.046339 -1.2631 -0.062511 0.53633
fallopian 0.46155 0.72783 0.54758 -0.32072 -0.99787 3.2394 1.0548 0.51648 0.88916 -0.16453 0.27519 -0.38443 0.47198 1.6071 -1.0289 1.3381 -0.4188 -0.24033 0.2539 -0.84923 0.99721 0.45265 0.47944 -0.066135 0.99942 -0.20661 0.66768 1.0685 -0.38486 -0.82354 -0.37994 0.20809 -0.18361 0.53956 -0.43036 -0.22741 1.4426 0.27851 -0.2573 -0.049894 0.47297 -0.4202 -0.2152 0.69327 0.1657 -0.55376 0.15567 -1.5027 0.010658 -1.5524
iphigeneia 0.20142 0.36416 -0.32454 -1.0457 0.01663 -0.53812 0.45386 0.79742 0.15299 0.95981 0.12245 0.42037 0.203 -0.93344 -0.3106 -0.37777 -0.33711 0.04876 0.048044 1.058 0.7477 -0.069642 -0.043443 -0.072234 0.78695 0.84698 -0.42244 -0.147 0.44462 -0.75664 -1.4576 0.54902 0.39798 0.45784 0.29957 -0.29337 0.60447 -0.54125 0.0081653 0.54031 -0.058828 -1.4357 -0.24343 -0.59985 0.59869 -0.66151 0.3774 -0.10358 0.81055 -0.14143
music-oriented -0.40725 -0.014274 -0.16844 0.22807 -0.094096 0.20531 -0.0093233 0.090953 0.071791 0.20555 -0.16005 -0.56755 1.1171 1.1079 -0.38679 -0.29893 -0.17095 0.70625 1.0223 -0.17269 0.5599 0.30336 -0.6826 0.68612 0.83769 1.2269 -0.12374 -0.039172 0.2564 0.6907 -0.32259 0.082535 0.52781 0.028407 -0.52075 0.31572 -0.34831 -0.35587 -1.1386 -0.19534 -0.16516 -0.66312 -0.33966 0.29756 -0.17469 -0.51522 0.017971 0.18262 -0.085155 0.23913
cct 0.72019 -0.05857 0.19136 0.64659 -0.70731 -0.38596 0.62911 -0.31428 0.6807 -0.19649 0.88658 0.74312 0.59689 0.27221 -0.59139 0.54523 -0.89485 0.38911 0.4373 0.16815 -0.072597 -0.41874 -0.57578 0.12833 0.45282 0.85352 0.49551 -0.6556 -0.83753 0.68301 -0.021279 0.3449 0.18819 1.2881 -0.30018 -0.27957 -0.27003 0.003025 -0.13445 -0.41311 0.75088 -0.37824 0.047161 0.84022 -0.59153 -0.25896 0.75938 -0.22039 -0.33676 -0.19569
confirms 0.67082 -0.062977 0.16865 0.41296 0.87719 -0.07373 0.29504 0.57313 0.92882 -0.13996 0.41995 -0.24489 -0.17897 0.022084 0.73561 0.16643 -0.46158 -0.46783 -0.21668 0.62583 -0.29117 0.063526 -0.13034 -0.14914 0.45544 -1.3853 -0.31936 0.034061 -0.48756 0.64756 0.89899 -0.38991 -0.49283 0.038821 0.035494 -0.69247 0.367 -0.49726 -0.37604 -0.77197 0.15389 -0.367 0.36069 -0.75107 0.53179 0.53767 0.17044 1.5925 0.55591 -0.087756
lul -0.29293 -0.18668 0.571 -0.26239 -0.44623 -0.26222 0.75338 0.40123 0.09989 -0.1567 0.057076 0.45929 0.47106 0.50084 -0.4692 -0.0020571 -0.043834 0.35735 0.69702 -0.14998 0.27006 -0.36619 0.37856 0.48888 0.053936 0.9504 0.18379 -0.19189 -0.10189 0.51909 -1.3348 -0.020948 0.14382 0.14164 -0.081171 0.006437 0.048273 -0.30103 -0.38836 0.064405 0.40406 0.0039881 -0.25637 -0.12892 0.058169 -0.54585 -0.00030554 -0.2445 0.098262 0.68466
monch -1.295 0.19862 -0.85013 0.28448 0.44101 0.33287 1.1791 0.012602 0.57651 0.60705 0.51739 0.0050304 0.64012 -0.50988 -0.51814 -0.22549 -1.1381 -0.64762 1.0361 0.025729 0.53345 -0.23657 0.90758 -0.48682 0.010123 1.2318 -0.38853 0.13607 0.27264 -0.99995 -1.5046 0.13279 0.6936 -0.1564 -0.14656 -0.20549 0.038035 0.3051 -1.0305 0.216 0.36923 -1.2626 0.33155 -0.85458 1.1677 -0.59974 0.2794 -0.45075 -0.061663 0.1296
unattested 0.078912 -0.60023 -0.32668 -0.09715 0.2275 -0.3445 0.73212 0.87457 -1.1726 0.67214 0.43315 -0.40206 2.156 -0.10321 0.41395 0.6427 -0.44335 -0.4456 0.88406 1.6096 -1.4136 -0.098941 0.08176 1.2814 0.47474 1.1909 0.27669 0.22971 1.1376 0.82863 0.14368 -1.6488 0.93383 -0.68751 -0.22928 0.71202 0.31331 -0.41478 -0.70763 -1.0171 0.42531 -0.51669 0.44883 0.74163 -0.44154 0.27803 -0.096696 0.21655 0.43574 0.25006
diversionary 1.4773 -1.9888 -0.51182 -0.31136 -1.3309 0.19515 0.64975 0.27506 -0.18748 0.07106 -1.239 -0.080917 -0.11748 0.098203 -1.4682 -0.70713 0.44695 0.18289 -1.009 -0.078969 0.48267 -0.70898 -0.31606 0.5412 0.13748 -0.56765 -0.40856 0.13616 1.1261 -0.25246 0.22847 -0.26963 -0.60618 0.046057 0.36614 0.37324 0.14661 -0.15613 -1.8235 0.45291 0.4444 0.1603 -0.46012 0.30087 0.534 -0.82903 0.75343 0.888 0.642 0.98025
saliera -0.86889 0.11711 -0.42807 -0.55932 -0.73377 -0.57033 0.76962 0.55285 0.21127 0.66195 -0.31292 0.8581 -0.18467 0.086959 0.16051 -0.62564 0.33313 0.17244 0.62045 -0.10645 -0.59029 -0.80897 0.72861 -0.69489 -0.81633 1.0696 -1.4319 0.97291 0.98733 -0.34148 -1.7242 -0.80794 0.53833 1.0917 -0.45196 0.7632 -0.0057026 0.22415 0.37248 -0.13626 0.10854 -0.64257 0.12017 -0.3141 0.59558 -0.044506 -0.43473 -0.80701 0.25911 -0.095525
knill -0.45426 -0.29874 0.44127 0.44114 -0.19437 -0.33991 -0.024687 0.9047 -0.85375 0.063221 -0.10468 0.76581 -0.10593 -0.55579 0.28774 0.10242 0.024313 -0.34093 0.13342 -0.059235 0.38467 -0.60235 -0.30866 -0.27933 0.079167 0.49974 1.0937 0.019644 -0.51128 0.58293 -1.3745 -1.1561 0.72763 -0.98882 0.13202 0.17739 -0.38524 -0.31761 0.26683 -0.89901 0.48199 0.29498 -0.9872 -0.19163 0.041338 -0.68121 0.70951 0.14912 -0.229 -0.007672
melanotan 0.86717 0.22705 0.059315 -0.90486 -0.14751 -0.45365 0.74161 -0.26443 -0.067616 0.47736 0.41367 1.5196 0.23248 -0.48845 0.31523 0.094584 -0.81799 1.309 0.43797 0.33799 0.28826 -1.0588 0.271 0.070351 -0.057935 0.67127 -1.1883 0.11554 1.1866 0.2135 -1.1147 0.00865 0.25274 0.86301 -8.4261e-05 0.53296 0.33844 -0.38514 -1.2567 0.72548 0.84904 -0.93778 -0.26047 -0.039144 0.62568 0.18556 -0.031204 0.26904 -1.0931 0.30508
2419 0.61708 -0.74004 0.21241 -0.51743 0.18547 -0.59166 1.3797 0.16609 -0.33788 0.58978 -0.732 0.19292 -0.023521 -0.30011 0.42692 0.80626 1.0015 0.24377 -0.70535 1.006 -0.27378 -0.89355 0.3534 -0.10014 0.52905 1.0936 -0.26456 -0.0074706 0.43052 -0.17862 -1.3934 -0.88014 0.55336 0.54426 -0.58741 -0.51843 0.91573 -0.85886 -0.18102 0.51075 -0.38615 -1.1311 -0.33768 0.87079 0.32841 0.68864 0.049012 -0.17657 -0.74875 0.40937
buthaina -1.4001 -0.34616 -0.087685 -0.22286 0.027388 -0.12239 -0.074444 0.55575 -0.29255 -0.85316 -0.30807 -0.54524 0.81187 0.61474 0.74298 -0.55236 0.26251 -0.84937 2.1733 -0.10484 -0.48078 0.28402 0.059573 0.78991 -0.18558 1.251 0.39878 1.0852 -0.28005 0.80201 -1.96 -0.12734 0.97835 0.47233 -0.23573 1.0871 -0.77488 0.035766 0.29181 0.51374 0.77124 1.8288 0.37491 -0.56041 -0.71764 -1.5126 -0.056107 1.9528 0.69949 0.25238
stelling 0.003573 -1.4515 -0.011737 1.0907 -0.050366 0.36148 -0.27071 -0.45164 0.45241 0.95336 0.56125 -0.020105 -1.1716 -0.26869 0.092356 -0.10551 0.64729 0.066634 -0.32636 -0.23236 -1.0008 0.42494 0.55023 1.5399 -0.6568 1.4312 0.90797 0.27373 -0.19906 -0.37534 -1.084 -0.15239 -0.34681 0.50623 0.35266 -0.28016 0.92855 -0.9478 0.10139 1.0813 0.56225 0.6815 -1.8914 0.29055 -0.43258 0.33024 0.057224 -0.1449 0.024901 0.36399
x20 -0.059953 0.85575 -0.14489 0.47174 -1.252 -0.41235 1.4456 -0.23891 -0.39169 -0.67316 0.74381 -0.053204 0.9011 0.42774 0.67125 0.28846 -0.97805 0.43447 0.2162 0.8713 -1.4913 -1.1325 -1.0698 1.093 -0.42019 0.56335 0.19014 -0.81398 -0.84387 -0.19944 -0.76614 0.35084 -0.092327 0.98366 -0.78994 0.44051 0.73472 -0.99168 0.54546 -0.12232 1.0028 -0.23576 0.78401 0.60193 0.42541 0.050375 0.305 -0.6588 0.49386 -0.11406
jujubes 0.0081246 -0.18532 0.22307 0.22679 -0.14761 0.01274 -0.13702 -0.0097859 -0.54008 0.10447 0.022401 0.33559 0.87831 -0.24334 -0.19483 0.50607 -0.079085 0.054897 0.45295 -0.20022 -0.21239 -1.0554 0.40806 0.23283 0.44624 1.0831 0.11571 0.55569 0.3396 -0.75879 -1.3176 0.2902 0.88656 0.12095 -0.045527 0.29019 -0.52041 0.26002 -0.19556 -0.13818 0.044815 -0.56916 -0.20146 0.26139 1.3294 0.3528 0.31556 -0.019556 0.064456 -0.61149
bearcat -0.23423 -0.57423 -0.08106 -0.013266 -0.13616 -0.23532 -0.55549 0.1585 -0.80253 -0.34029 0.48228 -0.38942 0.4029 -0.019327 -0.80136 -0.44799 -0.2516 1.3341 -0.96859 -0.41878 -0.65592 -0.39295 -1.1417 -0.62941 -0.040727 1.1374 -0.26878 0.48533 0.093703 -0.33001 -0.9367 -0.023754 0.51013 -0.15096 -0.38837 0.40233 0.53355 -0.48734 0.1454 -0.4375 0.30546 -1.2624 -0.80902 -0.11266 0.55097 -0.021259 -0.05376 0.2377 -0.15304 0.41183
46.9 -0.75915 -0.80773 0.5386 -1.2052 0.67927 0.74413 0.25716 -1.4415 0.21637 0.59263 0.43215 -2.1459 0.88768 -1.3265 -0.29944 0.43289 -0.33998 0.53129 0.14875 0.89236 1.0432 0.92273 0.2338 -1.0373 0.027359 1.197 -0.67194 -0.70324 -0.98191 -0.5249 -0.36993 1.376 -0.5102 0.04483 1.5716 0.043572 0.90693 0.72249 0.51158 -0.68707 -0.81624 -1.1023 -0.053607 -0.95362 -0.98987 -0.87539 0.30649 0.40385 1.2431 -0.3334
therein 0.52939 0.50945 -0.59042 -0.1906 0.87247 0.38561 0.98635 0.24894 0.37221 -0.3494 -0.55118 0.55149 0.05745 -0.65667 0.24301 0.28992 0.76487 0.16224 0.75119 0.0054003 -0.084457 -0.27048 0.8351 0.51571 0.49925 -0.12432 -0.84899 0.56708 0.64749 -0.23318 0.45836 -0.31564 0.23106 -0.62492 -0.10442 0.41681 -0.071576 -0.080925 -0.036301 0.343 0.25322 -0.73143 0.044518 1.2073 -0.87778 0.39544 -0.2493 0.43324 0.33329 -0.78988
2,074 0.056048 -0.35272 0.45482 -0.44075 0.56956 -0.17062 0.60166 0.015514 -0.34263 -0.11183 -0.4026 -0.77522 0.66256 -0.10853 -0.21046 -0.48932 -0.38408 0.27483 0.34858 0.057308 -0.12273 -0.10192 0.13127 -0.45667 0.23684 1.2951 0.46725 -0.23567 -0.1343 0.13049 -0.80428 0.70949 0.31487 0.0023968 0.012615 0.26485 0.37286 0.23024 0.0090289 0.22879 -0.20172 -1.0654 0.063343 0.67605 0.14486 0.21831 0.082502 0.51487 -0.11785 -0.22963
icwa -0.82587 -0.83748 -0.47149 0.10051 -0.075159 -0.044394 1.1844 -0.092653 1.1809 -1.0153 0.57157 0.34585 0.70893 0.16609 0.63221 0.59492 0.012687 0.22934 0.77634 0.57232 -0.36575 0.041521 -0.33733 0.4918 0.46516 0.10721 -0.14929 -0.95478 -0.47899 0.19043 -0.62494 -0.12149 -0.5404 0.22992 -0.42118 0.80694 0.2969 -0.75437 -0.12549 -0.24876 -0.24926 -0.066147 0.38848 0.69737 -0.72658 -0.29458 0.70463 0.077565 -0.18488 -0.02846
culhwch 0.78933 -1.458 -0.87195 0.15103 -0.84282 -0.1667 0.77899 1.161 -0.68032 0.66203 0.26508 1.1044 -0.77454 -0.52494 0.53929 -1.3748 0.035054 0.32915 1.1686 -0.33871 0.12369 0.19811 -0.19366 1.9746 0.734 1.1079 -0.59066 -0.3293 -0.48679 0.75871 -0.73712 0.26889 0.094845 0.46546 -0.31349 0.58913 -1.2411 -0.093488 -0.061195 -1.379 1.1829 0.15061 0.07822 -1.2242 -0.51343 1.0851 0.76621 -0.19037 1.2354 -0.70634
bertossa 0.64152 -0.0022878 -0.85577 0.18155 -0.12579 0.02706 0.44287 0.87668 0.47209 -0.33063 -0.52761 0.47461 -0.95352 -0.6715 1.23 0.019059 1.7234 -0.42259 0.51657 -0.38802 -0.018451 -0.20731 -0.99343 -0.45021 -0.24607 0.42289 1.2743 0.80536 -0.77449 -0.10496 -2.0866 -0.96433 0.5112 -0.44121 -0.64855 -0.045907 0.60624 0.73329 0.66229 1.3768 0.38274 1.1214 0.2622 -0.09576 -0.66575 0.34577 -0.80452 1.2692 -0.95876 0.52432
proudhon -0.11471 -0.81184 -0.81936 -0.14741 0.46801 0.71582 0.22095 -0.25823 -1.5508 1.1145 -0.11995 0.27421 -0.84687 -1.4532 -0.12694 -0.75871 0.89154 -0.61097 1.0807 -0.14116 0.62325 -1.0918 -0.41984 0.387 -0.44426 0.6345 -0.43311 -0.64813 0.3416 0.087213 -0.63076 -1.2819 -0.27405 0.27291 -0.61907 -0.62922 -0.67824 0.73725 0.071718 1.3196 1.1492 -0.78314 -0.73949 0.31245 0.31193 -0.59712 -0.62052 0.21746 0.55052 -0.23859
thermostat -0.50714 -0.81095 1.0365 -0.64261 0.18787 -0.38263 1.213 -0.35286 0.39916 0.44314 -0.16739 0.20481 0.59517 1.6849 -0.61132 1.3867 -0.84106 0.39848 -0.034676 -0.63274 0.80155 0.57066 -0.37326 -0.40107 0.76938 -0.14177 0.19739 0.086664 0.90943 0.85917 0.33104 0.16008 -0.41372 0.32255 0.042549 0.068691 0.078849 0.19658 1.3721 -0.30405 -0.39566 0.30049 -0.3583 2.0161 -1.3195 0.97594 1.5022 -0.78689 -0.21377 0.060955
solidary -0.76686 -0.33805 -0.5606 -0.37907 0.21739 0.32324 1.0355 0.4681 0.16011 0.34989 0.78981 -0.069923 0.992 0.61247 -0.58837 -0.35964 -0.20016 0.697 0.90218 -0.16564 -0.24634 -0.28237 -0.72079 -0.19797 -0.12834 0.82251 0.31762 0.16452 0.27686 0.21684 -0.56734 0.82199 0.0049533 0.22992 -0.4612 0.02023 0.14535 -1.103 -0.40102 -0.39597 -0.59014 -1.2896 0.17135 0.018756 -0.23156 -0.060503 -0.29056 0.5592 -0.11093 -0.13633
rubles -0.52188 0.29838 2.1407 -1.3295 0.36724 -0.57453 0.68132 -0.14773 -1.5472 0.30717 -0.22332 -0.60008 1.1775 -0.21914 1.6308 -0.5479 -0.52079 0.76475 0.3593 0.28665 1.4631 -1.0865 0.14371 -1.066 -0.24361 -0.52394 0.48539 0.071225 0.27323 -0.27281 1.4465 0.4863 0.08073 1.529 -0.79868 0.29857 -0.020008 0.417 0.94851 -0.19341 0.22005 -0.04005 1.7749 -0.32089 -1.3184 -0.89833 -0.66246 0.96009 0.0037 -0.6555
topscorer -0.72364 -0.073039 -0.7585 0.1696 0.7795 -0.08361 -0.25282 0.54755 0.082946 -0.033452 0.35954 0.50996 -1.2315 0.72636 -0.555 -1.2191 0.17453 0.059732 0.049387 0.7144 -0.46987 -0.27305 0.15535 -0.32789 -0.74521 1.03 0.30572 -0.15113 -0.45229 0.51008 -0.53436 0.17307 0.64409 0.58844 0.37457 0.44452 0.10101 1.5454 -0.30519 -0.11907 -0.27997 -1.1549 -0.49466 0.092697 -1.1178 0.44494 -0.50315 0.21226 -0.026146 -0.29482
hamnett -0.7077 0.5287 0.32584 -0.37141 -0.62047 0.47989 -0.16732 -0.45574 0.52271 -0.23833 0.090607 0.042537 0.040489 -0.31455 0.032251 0.61259 -1.158 -0.5534 1.1664 -0.71903 0.052432 1.2261 -0.48216 0.37487 1.2689 1.2504 -0.39125 0.21478 0.14898 0.48434 -1.6443 -0.014742 0.84472 -0.39593 0.47415 -0.36941 0.26411 0.009109 -0.82145 0.30329 0.44239 0.50691 0.4898 -0.28046 -0.9155 -0.078945 0.10568 -0.79185 0.13065 0.20241
parlophone -0.53788 -0.15935 0.11093 0.22463 -1.2011 0.33774 -1.0244 0.43987 0.69723 0.8428 0.89016 0.68715 -0.44819 -0.023497 -0.081909 0.060411 -1.2684 -1.0666 0.80524 0.32952 0.46046 0.26644 0.39066 -0.024743 -1.0312 0.74373 -0.41234 -0.0025138 -0.38656 -1.1495 -0.49332 -0.59821 0.41516 0.44111 -0.42072 -1.1148 0.94784 -1.5497 -0.060695 -1.0548 0.93509 -1.8021 -0.1395 -0.40283 -0.76423 0.28516 -0.25186 -0.10566 -1.4005 -0.51289
brookmeyer -1.4351 -0.24954 0.28012 0.85186 -1.9976 1.6951 -0.82315 0.59123 -0.44776 -0.52302 -0.54214 -0.57413 0.66 0.71778 -0.79045 -0.33501 -0.29983 0.54551 0.75118 -0.9695 -0.28898 0.72686 0.22155 -0.7648 1.2496 1.4755 -0.36924 -0.22228 0.37019 1.2975 -0.80873 -0.33632 0.23473 0.19586 -0.89195 -0.15199 0.097414 0.51427 0.63796 -0.0039876 0.34608 -0.78879 -0.93214 0.69078 0.47072 0.43238 -0.6016 0.21351 -0.69869 1.3847
aggravates 0.18137 -0.70583 -0.41586 0.18509 -1.0103 0.53192 0.99822 0.091213 0.43567 0.33612 0.68498 0.043318 -0.79492 -0.49111 0.55561 0.86729 0.00082647 0.17993 0.95116 0.15125 -1.1527 0.40739 -0.074789 0.44437 1.2158 0.37624 0.11962 0.78924 0.94025 0.37425 -0.39482 0.99682 0.73512 -0.13868 -0.74394 0.16172 -0.46128 -0.44188 0.17747 0.62747 -0.39309 -0.013058 0.17262 0.51139 -0.21654 0.23127 0.73624 1.0925 -0.064055 -0.12137
kapo -0.1523 -0.75992 -0.078348 -1.8251 0.043728 0.59677 1.659 0.26721 -0.035943 0.92781 0.52966 -0.1578 -0.64904 0.31849 -0.40109 -0.64296 0.096336 -0.2392 -0.49854 -0.091406 -0.16457 0.52574 -0.35295 0.45906 -0.70417 0.27527 0.2507 0.091615 -0.37864 -0.20358 -0.65619 1.0945 0.53426 0.66944 0.3 0.36039 1.1945 -0.46718 0.57176 -0.41766 1.2362 0.8272 0.15514 -1.3344 0.017247 0.001638 0.29409 0.037442 0.44881 0.68863
tyers 0.09381 0.38945 0.031288 0.91411 -0.80243 0.26765 -0.67244 0.52466 0.75236 -0.29457 0.15259 0.58893 0.74792 0.50535 -0.39361 0.022707 0.35683 -1.0095 -0.36341 0.18606 0.55163 -0.92581 -0.048682 0.55935 1.0437 0.53678 0.20927 -0.48263 0.23315 -0.70401 -1.4293 -0.085115 0.46013 0.29441 -0.24239 -0.68582 -0.54799 0.022011 -0.13368 1.4015 0.46438 0.71763 -0.019288 0.13047 -0.37893 -0.70432 0.58501 -0.31462 -0.23996 -0.014182
15-feet -0.16407 0.96355 0.99799 -0.89014 -0.066738 0.082914 1.0204 -0.68397 -0.56973 0.54959 -0.75671 -0.6803 0.89841 0.19601 -0.18623 -0.15834 0.25322 0.039303 -0.28288 0.87295 -0.5223 -0.2572 -0.15611 -0.23135 0.43683 0.72973 1.1378 0.32787 0.17605 0.48456 -0.32377 -0.11464 0.52058 0.87504 -0.54917 0.25301 -0.65162 -0.050416 0.44323 -0.44489 0.92768 -0.047089 0.52085 0.6456 -0.12007 -0.45626 1.3527 0.34292 -0.04726 -0.40939
neemuch -0.097443 -0.94871 -0.2568 0.42388 -0.4511 -0.077839 1.1576 0.30573 0.73437 0.21611 -0.17549 -1.2284 0.563 -0.37337 -0.53827 0.4119 0.053008 0.22214 0.93272 0.20463 0.31499 -1.1134 -0.19206 1.1907 -0.39434 0.11233 -0.44545 0.49877 -0.25677 -0.30719 -1.1093 -0.15162 0.63621 -0.42557 0.16822 0.022004 -0.025923 0.84665 -0.31681 0.42334 0.2311 0.56913 -0.28907 -0.51028 -0.24674 0.85336 0.13629 -0.44369 0.209 0.35846
kadoma -0.047921 -0.81085 -0.26829 0.64637 0.0086622 -0.43949 1.237 0.067028 -0.24557 0.43523 -0.59327 -2.1165 0.44004 -0.94458 0.014362 0.20263 -0.025959 0.60408 0.47603 0.66401 0.54793 -0.033873 -0.40568 0.37628 -0.023473 0.54806 0.78431 1.0063 -0.83885 -0.49439 -0.73006 -0.27751 0.4512 -0.010649 -0.2301 -0.51702 0.014954 -0.30326 -0.24724 0.36955 -0.40364 -0.10706 -0.29861 -0.68794 0.032385 0.50023 0.047682 0.45389 0.29504 -0.8547
yong-ho -0.199 -0.29116 -0.18258 0.18316 -0.41535 -1.4103 0.27305 0.33946 0.53782 0.46722 0.23323 0.53716 0.31008 -0.39991 -0.6225 -0.040587 -0.44451 -0.26038 -0.18399 0.92205 -0.60422 0.10698 0.031071 -0.052903 0.84981 0.5498 0.15084 -0.20025 -0.37098 0.18216 -1.4112 0.08833 1.0592 0.46484 0.61571 -0.46636 0.055212 0.17016 -0.8776 0.12976 -0.015235 -0.12783 0.058368 0.087784 0.55742 -0.88729 0.57333 -0.26231 0.39762 0.6287
baham -0.92113 0.15062 0.052281 -0.66265 -0.24328 -0.23299 0.68494 -0.14746 0.21574 -0.074392 -0.24383 0.28787 0.34517 -0.044895 -0.35252 -0.034077 0.36987 -0.27661 0.025035 0.47657 -0.55139 -0.1613 0.57339 0.16574 -0.30316 0.47363 0.70415 0.75679 0.4542 0.25856 -1.7124 -0.74279 -0.021831 0.61979 -0.071879 -0.48685 0.29497 -0.21285 -0.21824 0.45732 1.1249 0.030536 0.55817 0.23695 -0.12578 0.062044 -0.23616 0.76025 0.31639 0.49566
raiyshi 0.12934 0.03659 -0.16456 -0.13 -0.29265 1.0074 0.091344 -0.34926 0.58653 0.43168 0.061009 -0.42803 0.18685 0.56152 -0.25953 -0.11394 -0.70539 -0.74416 0.21108 0.70728 -0.91937 0.6641 -0.13526 -0.66567 -0.19295 1.0048 0.65528 0.6077 -0.0071577 -0.42884 -1.5429 0.72873 0.34672 0.89753 1.0186 0.61639 0.64431 0.7443 -0.64357 -0.052501 -0.34736 0.33279 0.51578 -0.82564 0.24205 -0.3566 0.28311 -0.55161 0.16259 0.020195
sijsling -1.0402 -0.13596 -0.60065 0.56572 0.10572 -0.17752 1.2651 0.99865 -0.69898 0.02659 1.0928 0.069094 0.74299 0.32855 -0.70052 -0.50974 0.12629 -0.28147 -0.47615 0.30583 0.19563 -0.29234 1.207 -0.88125 0.13888 0.6427 0.48901 0.37359 0.46262 -0.42878 -1.3266 -0.15312 0.037298 -0.054123 -0.29172 -0.19689 0.21601 1.3956 -0.59583 1.1037 1.2905 -0.2419 1.541 -1.6907 0.12986 0.98783 0.023707 0.95837 -1.4706 0.26212
cablecard -0.45991 -0.091818 1.2166 0.34873 -0.33027 0.14376 0.22165 -0.70911 -0.2881 0.75801 0.46989 -0.52579 0.77369 1.3732 -0.56097 0.36053 -0.33332 0.70316 0.34916 -0.73995 -0.2358 -0.58386 -0.89771 0.46321 0.4412 0.56766 0.51623 0.019216 0.067869 0.11953 -0.40563 1.1168 -0.58039 0.54538 -0.43287 -0.072662 0.4423 0.15068 -0.75671 -0.34699 0.7412 -0.19563 -0.82429 0.80555 0.026328 -0.23401 0.67102 0.72347 0.0080932 0.41965
hardwell -0.19675 0.038258 0.098511 0.41776 -0.26349 -0.10487 0.27017 0.44438 0.67967 -0.31411 -0.19543 -0.091043 0.28441 0.40608 -0.040925 0.1682 -0.30473 -0.075395 0.19725 0.073876 0.45347 0.51278 0.18478 0.025767 0.66186 1.328 -0.4999 0.34656 0.4972 0.61752 -1.6909 -0.66139 0.36559 0.071315 0.064558 0.46336 0.65613 -0.20473 -0.49991 0.28902 0.21763 -0.45072 -0.068004 -0.31441 0.66538 0.20386 0.19898 -0.64439 0.0023784 -0.12219
landay -0.20059 -0.70907 -0.44973 -0.16204 0.51027 -0.47049 0.23326 0.63379 0.72618 0.36776 -0.24234 0.92951 0.037162 -0.34977 -0.36112 -0.57121 -0.021478 -0.98681 0.70416 0.14743 -0.29541 0.19228 0.41731 0.036099 0.10814 0.8615 0.52163 0.20355 -0.037092 0.0063138 -1.5407 -0.65008 1.0367 0.31074 -0.12009 0.15455 -0.61649 0.23706 0.12867 0.2684 0.71586 0.31914 0.06232 0.076983 0.089419 0.2857 -0.034155 -0.08304 -0.086845 -0.071123
euro310 0.41912 0.25349 1.2181 -0.53818 -0.84394 -0.86137 1.3578 -0.38606 0.59547 -0.20414 -1.3054 -0.86145 1.0135 -1.5875 0.77907 -0.3917 -0.090223 0.38465 -0.011717 0.43974 -0.017953 0.23595 -0.62977 0.25078 0.87007 0.80076 0.17432 -1.107 -0.64139 0.63674 -0.97232 -0.11124 -0.10414 1.0074 -0.62696 0.032405 0.52231 -0.25025 -0.04286 -1.4591 1.8097 -0.059628 1.3497 0.42802 -0.27096 0.61583 0.4432 0.19359 -0.2779 0.37827
95.42 -1.4039 -0.79551 0.25172 -0.72637 0.32382 0.13296 0.15818 -0.82942 -1.2903 -0.44542 -0.048914 -0.18948 1.151 -0.46157 -0.60869 0.0029414 -0.42185 0.15169 0.22873 0.2797 -0.054261 0.56701 -0.57508 -0.66441 0.33521 0.56191 0.76185 0.175 -0.025854 -0.03356 -1.6839 -0.35221 -0.0071043 -0.21326 0.12509 0.17514 -0.07609 -0.29272 0.054511 -0.49605 0.1458 -0.16216 0.69399 -0.10646 -0.64119 -0.3449 -0.049584 -0.69296 1.1711 -0.61175
universitat -0.4295 0.54238 -0.20903 -0.55168 -2.052 -2.1362 0.84878 0.58288 -1.1963 0.86718 1.0061 -0.92794 -0.44023 -1.0911 -0.29757 -0.38634 -0.17331 0.77856 0.13591 0.25068 -0.90257 -0.45586 -0.53016 0.2795 0.23921 0.33 -0.18286 0.51071 -0.48326 0.11063 -0.41063 0.13434 -0.7898 0.020567 -1.4141 -0.10496 -0.12671 1.2866 0.91079 1.3016 1.6619 -0.35775 -0.23013 -0.164 -0.34581 -0.40388 0.79072 0.099217 -0.37038 -0.23555
zaharah 1.3532 -0.8425 0.36329 0.78388 0.0097098 -1.031 0.25811 -0.030317 -0.061406 -0.69769 0.17181 0.088285 0.98977 -0.93962 -0.31724 0.41384 -0.90398 0.50208 2.0997 0.038262 -2.344 0.30325 -0.40473 -0.74021 0.93036 1.1898 0.83102 -0.37739 -1.6673 1.1589 -1.3564 -0.64575 -0.17615 0.66254 0.0025534 -0.42749 -0.066438 1.04 0.099937 -1.0291 -0.09398 -0.45314 -0.15846 0.24041 1.6947 -0.067958 -0.92761 -0.64283 0.47001 0.93334
11-21 -0.50884 -0.21678 0.17379 1.4941 -0.71167 -0.18866 0.82522 -0.16185 -0.56495 0.91747 -0.010004 -0.65469 -0.319 -0.041643 0.52866 0.3102 -1.2772 -1.0475 -0.65798 0.44398 0.72555 -0.32198 0.62362 -0.59122 -0.59692 0.96919 0.72256 -0.53303 0.088552 0.35529 -1.0131 0.95058 -0.23623 0.16636 -0.037542 -0.89331 0.266 -0.041105 0.26105 0.19457 -0.52813 -0.45754 -0.012614 -0.00051125 0.88635 0.25588 0.17634 -0.44664 0.64458 -0.048211
seitzer -0.29388 -0.64987 -0.067321 -0.48747 0.14063 1.1948 0.0093102 0.84703 -0.29557 -0.0051701 0.1045 0.94814 -1.4148 0.61105 -0.53638 -0.62986 0.12035 -0.59231 0.33867 0.1309 -0.1554 -0.078617 -1.1089 1.3317 -0.5012 0.8285 1.6813 -0.10233 0.7788 -0.60235 -0.31767 1.0182 1.825 0.91247 -0.088974 0.31013 0.56544 -1.3457 0.18067 0.23852 -0.29485 0.11174 -0.25138 -0.24883 -0.95073 -0.10159 0.11976 -0.67851 0.13279 0.55408
aim 0.33571 0.058344 0.40227 -0.3317 0.24397 0.13791 0.042417 -0.41391 0.38318 0.45105 0.08936 -0.11148 -0.58255 -0.056275 -0.56674 0.12427 0.92374 -0.095402 0.27488 0.036016 0.50355 0.11659 -0.13859 -0.1635 0.06997 -1.0609 0.060337 -0.72496 0.35752 -0.061684 2.6015 0.97729 -1.0789 -0.82217 -0.43025 0.015603 -0.36125 0.17208 -0.77032 -0.29129 0.013701 -0.89015 0.25539 -0.42271 0.23426 -0.074704 -0.072582 0.63361 0.26319 -0.11322
eckstine -0.52653 -1.014 -1.3385 0.12577 -0.38686 1.5401 -0.2695 0.76562 0.73522 0.49174 0.10151 0.85283 -0.092481 -0.56903 -0.13536 0.15007 0.23316 0.66839 -0.34211 -0.036799 0.1181 1.028 0.47125 0.55566 -0.2321 0.71138 0.18891 -0.22004 0.50745 -0.23544 -0.6123 0.26028 0.54774 0.99612 1.0782 0.61071 0.92467 -1.2013 -0.74771 0.45655 0.086919 0.60811 -1.6798 -0.18775 -0.26849 0.74744 -0.49606 -0.37274 -1.9135 0.38142
kraai -0.28127 -0.85634 -0.53008 -0.46823 -1.3743 -0.39888 -0.046378 0.23825 1.2303 -0.48378 0.62565 0.35118 0.16898 0.17767 -0.52361 -0.05361 1.2321 -0.38526 0.1267 0.87179 -0.15541 -0.9505 -0.035618 -0.028149 0.24092 1.1375 0.74637 0.31005 0.59561 0.50284 -0.71618 -0.853 -0.63643 0.98746 -0.12021 0.89585 0.84017 0.12975 0.021783 0.99029 -0.023415 -0.034657 -0.08635 -1.9187 1.0564 -0.23306 0.63763 -0.027364 0.74175 0.52931
capote -0.13889 0.79396 -0.31084 -0.36709 -0.26268 0.37107 0.064135 -0.7049 -0.12732 0.46615 -1.2723 0.91958 0.18741 -0.25917 0.63032 -0.708 -0.22369 0.11057 -0.52225 0.91752 -0.025158 0.2322 0.81218 -0.8821 0.93456 -1.0939 -1.1168 0.049495 0.15293 -0.76737 -0.87285 -0.3111 0.30009 -0.45849 -0.44193 0.11443 -0.73498 0.66511 -0.31558 -0.38757 0.032971 0.85522 -0.18892 0.068033 -0.37784 -0.19046 0.34352 -0.80766 -0.75577 0.6507
13:15 -0.54554 0.013881 -0.1694 -0.33762 0.19993 -0.52778 0.63955 0.058795 -0.93811 -0.57452 -0.36484 -0.51694 0.53305 0.69674 0.044281 0.07602 0.010836 -0.083168 -0.94787 0.15143 0.37387 -0.037377 0.12794 0.67017 0.57396 1.2753 0.9506 -0.14134 0.25206 0.85731 -0.45151 -0.083209 0.23779 0.0083952 -0.72015 0.25491 0.00020449 -0.37484 0.92591 0.73943 0.81239 -0.050443 -0.066086 0.96298 0.35569 0.58209 0.91129 0.27164 0.42051 -0.033885
la. 0.29894 -0.12574 -0.4777 -0.059222 -1.0792 -0.30321 -0.18394 0.66508 -0.092153 0.012955 -1.567 -0.22623 0.52121 -1.3329 -0.86291 -0.70528 -0.43575 0.50707 0.48383 -0.20713 -0.39169 0.45952 0.28369 -0.15517 -0.75752 -0.69457 -0.23579 0.30336 0.056904 -0.29765 0.13938 -0.09809 -0.74003 0.24587 0.78616 -0.6704 -0.33495 -0.26338 1.7579 0.53274 -0.2811 1.1282 -0.55857 -0.24483 -1.0999 1.379 -0.53219 -0.8605 -0.7803 1.0693
atheism -1.0492 0.1934 -0.43805 -0.96337 -0.23656 0.10074 0.26972 -1.2699 -0.50478 1.0849 0.35292 0.2423 -0.019588 -0.64176 -0.40861 0.023123 -0.36495 0.17345 0.55073 1.3804 -0.77731 0.070123 0.42315 -0.22323 0.60433 -0.68572 0.21564 -0.2198 0.54807 0.57702 0.1026 -0.37476 -0.68867 -0.85385 -1.1454 -0.39496 -0.29692 0.076104 -1.2399 0.6288 0.17073 -1.2444 -0.17106 1.3482 0.12792 0.28475 -0.44241 0.6916 -0.096031 -0.83853
spiric 0.035884 -0.02977 0.42674 -0.43871 -0.037737 0.97958 0.39301 0.29719 -1.493 -0.47775 -0.58174 -0.55022 -0.45049 0.32697 -0.099284 0.04766 -0.30597 0.095043 2.1124 -0.63235 0.73353 0.32905 -0.39227 0.32863 -0.01696 1.4197 -0.30936 1.2098 -0.2964 0.63008 -0.62031 -0.76572 -0.43146 0.36862 0.14781 0.87675 1.1231 0.0021945 0.22254 0.57804 0.37406 0.26276 -0.82365 -1.6286 -0.43524 1.0307 -0.887 0.79615 1.2159 -0.66266
111.79 -0.37552 -0.0022311 0.83987 -1.0824 -1.0704 -0.90468 0.46495 0.71873 -0.82012 0.5081 0.033932 -0.35269 0.59223 0.013489 -0.83613 0.55262 -0.4776 0.0017323 -0.17338 0.14861 0.33837 0.26347 -0.11705 -0.48488 0.30786 0.81548 0.57564 0.58544 0.26952 0.0089993 -1.1863 0.54526 0.93995 -0.022315 0.12338 -0.16246 0.10132 -0.44194 -0.068569 -0.2258 -0.10013 -0.4262 0.076769 0.13083 0.010887 -0.53991 0.78522 0.28374 -0.28399 -0.40898
dschang -0.39722 -0.39501 -0.3793 0.053457 -0.67214 -0.59792 1.3779 0.59424 0.16186 0.52896 0.18299 -0.84072 0.73962 -0.72774 -0.57436 0.075287 -0.44811 0.60972 -0.12032 0.97031 0.25181 -0.023273 -0.16675 0.67253 -0.081998 0.34767 0.35865 0.12289 -0.0639 -0.14627 -1.543 0.21548 0.4047 -0.062058 -0.017075 -0.37649 -0.41664 -0.24073 -0.13898 0.069035 0.4938 -0.37146 0.44707 0.013283 -0.31109 0.19071 0.62445 0.35508 0.08443 -0.0945
athol -0.45848 -0.16741 -0.64752 -0.46217 -1.2918 1.1403 0.088847 0.17957 -0.39398 0.23567 -1.3134 -0.17212 0.57312 -0.42836 -1.0879 0.31468 1.1031 0.70149 0.036556 0.75905 0.74965 0.61739 -0.31436 0.58578 1.1003 -0.49325 0.57136 0.46264 -0.44044 -0.032346 -0.91191 -0.82123 0.35243 0.23407 0.022274 -0.22705 -0.33141 -0.26602 0.18789 -0.4806 0.39397 0.16051 -0.20983 -0.59119 0.78819 1.5132 0.095659 0.19974 -0.095217 -0.30502
ancestor 1.231 0.62326 -0.45293 0.19836 1.652 1.0965 -0.56671 -0.39599 0.09417 0.34751 0.76743 0.85276 0.79251 -0.4652 -0.1869 0.17395 -0.28956 -0.38823 -0.42906 0.45252 -1.1707 -0.5762 -0.18358 0.24925 1.1713 -0.47105 -1.5618 -1.1513 -0.2952 0.38431 0.80222 -0.82833 0.34632 -0.0012063 0.75582 -0.645 -0.50771 -0.10994 -0.77455 0.34635 -0.17908 -0.24125 -0.69441 0.86878 0.20374 -0.0026401 -0.14132 -1.1358 -0.25838 -1.0087
ferri 0.70201 -0.31611 -0.38461 -0.017881 0.27169 0.18067 0.51836 -0.52537 -1.1682 0.57895 0.5834 0.4322 -1.0888 0.33966 0.52586 -0.83556 -0.33794 -0.10697 0.12832 -0.1716 -0.15049 0.53761 -0.16251 -0.13951 -0.4116 0.70855 0.5595 0.58088 -0.71166 -0.1371 -1.0108 -0.058223 0.32939 0.13534 -0.88878 -0.24604 -0.053441 0.55709 0.97362 0.70682 0.69665 0.30835 0.35582 0.21663 -0.18907 -0.90251 0.006975 -0.25419 0.45773 -0.054648
zweibrücken 0.21935 0.033162 0.41056 -0.85391 0.060583 0.9646 1.1262 0.95052 -0.32329 -0.53042 0.40216 -0.64598 0.19263 -0.85943 -1.1366 -0.41811 -0.76911 -0.13163 -0.484 0.25497 0.26414 -1.2058 -0.085014 0.36066 -0.71105 -0.57655 -0.625 0.098175 0.24288 -0.46512 -1.3065 0.13838 -0.051753 -0.28683 -0.038743 -0.51445 0.43906 0.50596 0.144 1.3299 1.3837 0.19363 -0.28118 0.099626 -1.4164 -0.44107 0.056077 -0.77724 -0.2693 0.04346
kolambugan 0.45252 -0.50657 -1.1919 -0.41897 -0.46281 -0.27319 -0.044045 0.98139 0.088383 0.98853 -0.1132 -1.3853 0.77238 -1.4506 0.25649 -0.39942 0.45873 -0.11241 0.51642 0.57229 -0.42068 0.34182 0.05516 0.56805 -0.37833 1.2108 -0.32796 0.88838 0.076281 0.010913 -1.3715 -0.11876 0.1537 -0.17898 0.52115 0.10656 -0.35635 0.0018166 0.33169 0.59367 -0.1128 0.18406 -0.46811 -0.71961 -0.25948 -0.29123 -0.12345 0.33619 0.083718 -0.39426
wrgb -0.17835 -0.38294 0.19218 0.39534 -0.59453 0.032672 0.22253 0.39867 -0.48312 0.3687 -0.26058 -0.21909 0.28622 0.52707 -0.5598 0.069701 -1.1083 0.81998 0.41503 0.55887 1.0393 -0.56545 -0.058839 0.89535 -0.26332 0.13973 0.57047 0.47728 0.34462 0.071178 -1.0238 0.52295 0.57288 -0.016854 -0.418 -0.37861 -0.16293 -0.065384 -0.36809 0.1402 0.20194 -0.39406 -0.69649 0.10813 -0.85939 0.4974 -0.41842 0.50182 0.37584 0.41987
tassos 0.33591 1.0843 0.81416 0.59226 0.50392 0.35609 -1.0252 -0.60637 -1.6316 -0.22325 1.2051 0.015392 0.26284 0.85971 0.15056 0.84304 0.041546 -0.35777 0.44588 -0.064911 -1.6905 1.0311 -0.84819 -0.69335 1.29 0.13385 1.5256 0.0057544 -1.5051 0.77537 -0.82144 -0.34988 -2.544 0.25346 0.1347 -0.6314 0.33577 -0.73753 -0.47357 0.48555 -0.17941 0.44123 -0.51629 -0.4447 0.26347 -0.32138 -0.18349 0.53901 0.51872 -2.1412
nnsa -0.15054 -0.50586 1.1088 0.39382 -0.70992 -0.64022 1.051 -0.31284 0.59767 -0.82415 0.050824 0.38169 -0.6113 -0.2987 -0.14048 1.0089 1.1599 1.1928 0.76327 0.72795 -0.46543 0.11378 -0.2038 -1.0112 0.16349 0.097632 0.54034 0.15979 -0.82587 0.22286 -0.95351 -0.94909 -0.37162 -0.72024 -0.17579 1.0108 0.66321 -0.32756 0.017417 0.081513 0.19074 0.26827 -0.1717 -0.68251 -0.83518 0.042292 -0.11983 1.2567 -0.71868 0.5291
rooper -0.68185 -0.64858 -0.34306 -0.26827 -0.090804 0.53592 0.34771 -0.10744 -0.072146 0.43992 -0.021465 0.79287 1.4439 0.098096 0.018133 0.57621 -0.48172 -0.088094 0.75589 0.15746 0.44734 0.32788 1.0001 -0.04664 0.40586 1.5822 0.50619 -0.42796 -0.035593 1.1149 -1.503 -0.10834 0.11442 1.3984 0.45531 0.41565 0.046559 0.14666 -0.18969 -0.16388 0.87 0.41972 -0.67511 -0.14385 0.42351 0.94469 -0.66259 -0.25053 0.1927 -0.11836
17.14 -0.77416 -0.95985 0.21823 0.17084 0.37803 -0.59184 0.93018 -0.53296 -0.20467 0.40283 -0.38087 -0.38545 0.88064 -0.8113 -0.36501 -0.27247 -0.10268 -0.47994 -1.3244 0.17967 0.091907 -0.060563 -0.2402 -1.0398 0.19901 1.0223 0.98413 -0.46896 0.077322 -0.87593 -1.1292 0.022082 0.16149 0.7996 0.54491 -0.62927 -0.065214 -0.79901 0.53425 0.36564 -0.03622 -0.59524 1.5292 0.67443 -0.79013 0.5325 0.67615 0.34988 0.46393 -0.65908
chodos -0.69311 0.14638 0.7277 0.37766 0.35408 -0.14711 0.70518 0.17205 -0.012391 0.867 0.25098 -0.34849 -0.049913 0.61864 0.058932 -0.57429 -0.34177 -0.77157 0.61842 0.50703 -0.23315 0.033017 -0.80045 0.52696 0.3397 0.85674 -0.4534 -0.2407 -0.26703 -0.043723 -1.7454 -0.39013 1.2721 -0.61544 -0.23665 -0.085231 -0.044766 -0.19167 -0.15052 -0.11865 0.14467 0.049873 0.51394 -0.17891 0.32455 -0.64794 0.47129 0.13313 1.1301 0.34595
temperature-controlled -0.29242 -0.078392 -0.4636 -0.60935 -0.067014 0.097939 0.60313 0.38388 0.95752 0.14135 -0.3012 -0.77666 0.9892 0.64926 -0.57438 -0.11003 0.73698 0.40208 0.99671 -1.0577 0.72375 -0.027519 -1.0381 0.28604 -0.18097 1.1863 0.82598 0.705 0.38885 0.98243 -0.68483 -0.45427 0.19861 0.19712 0.41307 0.91473 0.31548 0.7955 0.071755 0.10385 0.67792 -0.045702 0.084801 0.41615 -0.086367 -0.25005 0.33107 0.27897 0.033942 0.0649
bulley -0.84476 -0.42316 -0.30542 -0.066196 0.0070143 0.29554 0.22603 0.472 -0.026438 -0.41233 -0.147 0.17564 -0.50538 -0.44488 0.11452 -0.62064 0.055443 0.26441 0.71151 -0.085362 0.33864 -0.23724 -0.49935 0.28917 0.34055 1.4698 0.23246 -0.53591 -0.17335 0.27305 -1.2356 0.15751 1.2966 0.11218 -0.091051 0.49574 0.0077133 0.57744 0.25062 -0.10196 0.31596 -0.67246 -0.48166 0.33136 -0.0059246 -0.33816 0.3679 0.15762 -0.14126 0.78818
